net 
{
    node_size = (76 36);
}

node H
{
    label = "H";
    position = (595 285);
    states = ("Hp_Source"  "Hd_NotSrouce");
}

node Num_2X
{
    label = "Num_2X";
    position = (87 -17);
    states = ("zero"  "one"  "two"  "three"  "four"  "five"  "six" 
     "seven"  "eight"  "gt_eight");
}

node Num_3X
{
    label = "Num_3X";
    position = (197 -17);
    states = ("zero"  "one"  "two"  "three"  "four"  "five"  "six" 
     "seven"  "eight"  "gt_eight");
}

node Num_4X
{
    label = "Num_4X";
    position = (311 -16);
    states = ("zero"  "one"  "two"  "three"  "four"  "five"  "six" 
     "seven"  "eight"  "gt_eight");
}

node Num_5X
{
    label = "Num_5X";
    position = (422 -16);
    states = ("zero"  "one"  "two"  "three"  "four"  "five"  "six" 
     "seven"  "eight"  "gt_eight");
}

node Num_10X
{
    label = "Num_10X";
    position = (979 -16);
    states = ("zero"  "one"  "two"  "three"  "four"  "five"  "six" 
     "seven"  "eight"  "gt_eight");
}

node Num_9X
{
    label = "Num_9X";
    position = (866 -16);
    states = ("zero"  "one"  "two"  "three"  "four"  "five"  "six" 
     "seven"  "eight"  "gt_eight");
}

node Num_8X
{
    label = "Num_8X";
    position = (755 -16);
    states = ("zero"  "one"  "two"  "three"  "four"  "five"  "six" 
     "seven"  "eight"  "gt_eight");
}

node Num_7X
{
    label = "Num_7X";
    position = (642 -16);
    states = ("zero"  "one"  "two"  "three"  "four"  "five"  "six" 
     "seven"  "eight"  "gt_eight");
}

node Num_6X
{
    label = " Num_6X";
    position = (534 -17);
    states = ("zero"  "one"  "two"  "three"  "four"  "five"  "six" 
     "seven"  "eight"  "gt_eight");
}

node Num_gt10X
{
    label = "Num_gt10X";
    position = (1095 -16);
    states = ("zero"  "one"  "two"  "three"  "four"  "five"  "six" 
     "seven"  "eight"  "gt_eight");
}

potential (H |)
{
    data = (0.50000000 0.50000000);
}

potential (Num_2X | H)
{
    data = ((0.58955546 0.23176521 0.10271903 0.03409581 0.01424256 
        0.00690548 0.00302115 0.00517911 0.00647389 0.00604230)
        (0.47682288 0.33346411 0.13545324 0.04043000 0.01030857 
        0.00247170 0.00056888 0.00023540 0.00008828 0.00015693));
}

potential (Num_3X | H)
{
    data = ((0.68752698 0.21406992 0.05653863 0.02028485 0.00776867 
        0.00431593 0.00431593 0.00302115 0.00129478 0.00086319)
        (0.71443004 0.23650862 0.04337250 0.00501206 0.00054927 
        0.00007847 0.00001962 0.00000981 0.00000981 0.00000981));
}

potential (Num_4X | H)
{
    data = ((0.73586534 0.19335347 0.04661200 0.01165300 0.00733707 
        0.00129478 0.00086319 0.00172637 0.00043159 0.00086319)
        (0.84801969 0.13880770 0.01228005 0.00077486 0.00005885 
        0.00000981 0.00001962 0.00000981 0.00000981 0.00000981));
}

potential (Num_5X | H)
{
    data = ((0.79628830 0.16745792 0.02287441 0.00733707 0.00258955 
        0.00086319 0.00129478 0.00043159 0.00043159 0.00043159)
        (0.92545658 0.07133609 0.00307001 0.00006866 0.00001962 
        0.00000981 0.00000981 0.00000981 0.00000981 0.00000981));
}

potential (Num_10X | H)
{
    data = ((0.93180837 0.05783340 0.00474752 0.00129478 0.00172637 
        0.00086319 0.00043159 0.00043159 0.00043159 0.00043159)
        (0.99734194 0.00256979 0.00001962 0.00000981 0.00000981 
        0.00000981 0.00000981 0.00000981 0.00000981 0.00000981));
}

potential (Num_9X | H)
{
    data = ((0.91627104 0.07337074 0.00561070 0.00172637 0.00043159 
        0.00086319 0.00043159 0.00043159 0.00043159 0.00043159)
        (0.99433078 0.00557114 0.00002943 0.00000981 0.00000981 
        0.00000981 0.00000981 0.00000981 0.00000981 0.00000981));
}

potential (Num_8X | H)
{
    data = ((0.90634441 0.08286578 0.00690548 0.00086319 0.00086319 
        0.00043159 0.00043159 0.00043159 0.00043159 0.00043159)
        (0.98993664 0.00995547 0.00003923 0.00000981 0.00000981 
        0.00000981 0.00000981 0.00000981 0.00000981 0.00000981));
}

potential (Num_7X | H)
{
    data = ((0.90202848 0.08329737 0.00906344 0.00172637 0.00129478 
        0.00086319 0.00043159 0.00043159 0.00043159 0.00043159)
        (0.98041274 0.01938129 0.00013732 0.00000981 0.00000981 
        0.00000981 0.00000981 0.00000981 0.00000981 0.00000981));
}

potential (Num_6X | H)
{
    data = ((0.84031075 0.13465688 0.01553733 0.00517911 0.00086319 
        0.00129478 0.00043159 0.00043159 0.00086319 0.00043159)
        (0.96108049 0.03786021 0.00099064 0.00000981 0.00000981 
        0.00000981 0.00000981 0.00000981 0.00000981 0.00000981));
}

potential (Num_gt10X | H)
{
    data = ((0.56927061 0.40224428 0.01985326 0.00474752 0.00043159 
        0.00086319 0.00129478 0.00043159 0.00043159 0.00043159)
        (0.99739098 0.00253055 0.00000981 0.00000981 0.00000981 
        0.00000981 0.00000981 0.00000981 0.00000981 0.00000981));
}
